<?xml version="1.0"?>
<opencv_storage>
<cascade>
  <stageType>BOOST</stageType>
  <featureType>HAAR</featureType>
  <height>12</height>
  <width>12</width>
  <stageParams>
    <boostType>GAB</boostType>
    <minHitRate>9.9000000953674316e-01</minHitRate>
    <maxFalseAlarm>5.0000000000000000e-01</maxFalseAlarm>
    <weightTrimRate>9.4999999999999996e-01</weightTrimRate>
    <maxDepth>1</maxDepth>
    <maxWeakCount>100</maxWeakCount></stageParams>
  <featureParams>
    <maxCatCount>0</maxCatCount>
    <featSize>1</featSize>
    <mode>BASIC</mode></featureParams>
  <stageNum>20</stageNum>
  <stages>
    <!-- stage 0 -->
    <_>
      <maxWeakCount>9</maxWeakCount>
      <stageThreshold>-8.1267917156219482e-01</stageThreshold>
      <weakClassifiers>
        <_>
          <internalNodes>
            0 -1 142 -3.4887167811393738e-01</internalNodes>
          <leafValues>
            -8.0431175231933594e-01 4.6044099330902100e-01</leafValues></_>
        <_>
          <internalNodes>
            0 -1 248 -8.6438078433275223e-03</internalNodes>
          <leafValues>
            7.6597934961318970e-01 -1.8883617222309113e-01</leafValues></_>
        <_>
          <internalNodes>
            0 -1 619 1.3982839882373810e-02</internalNodes>
          <leafValues>
            -2.3790958523750305e-01 6.7599809169769287e-01</leafValues></_>
        <_>
          <internalNodes>
            0 -1 307 -1.0420992970466614e-02</internalNodes>
          <leafValues>
            7.2899675369262695e-01 -1.5884251892566681e-01</leafValues></_>
        <_>
          <internalNodes>
            0 -1 570 -4.0951310656964779e-03</internalNodes>
          <leafValues>
            5.0647473335266113e-01 -2.1025025844573975e-01</leafValues></_>
        <_>
          <internalNodes>
            0 -1 543 -7.6145790517330170e-03</internalNodes>
          <leafValues>
            6.7958807945251465e-01 -1.0931792855262756e-01</leafValues></_>
        <_>
          <internalNodes>
            0 -1 343 3.0253589153289795e-01</internalNodes>
          <leafValues>
            -1.9053891301155090e-01 6.4499241113662720e-01</leafValues></_>
        <_>
          <internalNodes>
            0 -1 464 1.4528890140354633e-02</internalNodes>
          <leafValues>
            -1.5072979032993317e-01 6.0945564508438110e-01</leafValues></_>
        <_>
          <internalNodes>
            0 -1 200 -2.5621410459280014e-03</internalNodes>
          <leafValues>
            3.9922392368316650e-01 -2.3885266482830048e-01</leafValues></_></weakClassifiers></_>
    <!-- stage 1 -->
    <_>
      <maxWeakCount>11</maxWeakCount>
      <stageThreshold>-5.5811113119125366e-01</stageThreshold>
      <weakClassifiers>
        <_>
          <internalNodes>
            0 -1 140 2.6007813215255737e-01</internalNodes>
          <leafValues>
            4.5280897617340088e-01 -6.3333332538604736e-01</leafValues></_>
        <_>
          <internalNodes>
            0 -1 178 7.8741181641817093e-03</internalNodes>
          <leafValues>
            -2.1997945010662079e-01 6.3853353261947632e-01</leafValues></_>
        <_>
          <internalNodes>
            0 -1 240 -1.1421469971537590e-02</internalNodes>
          <leafValues>
            6.5080571174621582e-01 -1.5727125108242035e-01</leafValues></_>
        <_>
          <internalNodes>
            0 -1 150 -2.3360851407051086e-01</internalNodes>
          <leafValues>
            -8.6982345581054688e-01 1.1094382405281067e-01</leafValues></_>
        <_>
          <internalNodes>
            0 -1 43 4.1018772125244141e-01</internalNodes>
          <leafValues>
            1.0500710457563400e-01 -7.4256998300552368e-01</leafValues></_>
        <_>
          <internalNodes>
            0 -1 232 9.6683986485004425e-03</internalNodes>
          <leafValues>
            -1.6935907304286957e-01 5.7014060020446777e-01</leafValues></_>
        <_>
          <internalNodes>
            0 -1 9 3.5477217286825180e-02</internalNodes>
          <leafValues>
            1.3544288277626038e-01 -5.7443583011627197e-01</leafValues></_>
        <_>
          <internalNodes>
            0 -1 619 2.0688023418188095e-02</internalNodes>
          <leafValues>
            -1.2699806690216064e-01 6.1842501163482666e-01</leafValues></_>
        <_>
          <internalNodes>
            0 -1 81 -2.0052231848239899e-02</internalNodes>
          <leafValues>
            5.7975208759307861e-01 -1.3167911767959595e-01</leafValues></_>
        <_>
          <internalNodes>
            0 -1 57 4.5034924149513245e-01</internalNodes>
          <leafValues>
            -8.2203291356563568e-02 7.1117717027664185e-01</leafValues></_>
        <_>
          <internalNodes>
            0 -1 327 7.2081335820257664e-03</internalNodes>
          <leafValues>
            -1.2818104028701782e-01 6.1101627349853516e-01</leafValues></_></weakClassifiers></_>
    <!-- stage 2 -->
    <_>
      <maxWeakCount>20</maxWeakCount>
      <stageThreshold>-6.6342890262603760e-01</stageThreshold>
      <weakClassifiers>
        <_>
          <internalNodes>
            0 -1 18 -3.0434638261795044e-01</internalNodes>
          <leafValues>
            -4.1982507705688477e-01 4.3056079745292664e-01</leafValues></_>
        <_>
          <internalNodes>
            0 -1 235 -1.9047182053327560e-02</internalNodes>
          <leafValues>
            4.8653706908226013e-01 -1.9474549591541290e-01</leafValues></_>
        <_>
          <internalNodes>
            0 -1 327 8.8459104299545288e-03</internalNodes>
          <leafValues>
            -1.2163361907005310e-01 5.8386611938476563e-01</leafValues></_>
        <_>
          <internalNodes>
            0 -1 75 3.3747622370719910e-01</internalNodes>
          <leafValues>
            -1.6197487711906433e-01 6.4109212160110474e-01</leafValues></_>
        <_>
          <internalNodes>
            0 -1 14 1.9282087683677673e-02</internalNodes>
          <leafValues>
            1.5113493800163269e-01 -4.9698013067245483e-01</leafValues></_>
        <_>
          <internalNodes>
            0 -1 621 1.2654499150812626e-02</internalNodes>
          <leafValues>
            -1.3046571612358093e-01 5.5115938186645508e-01</leafValues></_>
        <_>
          <internalNodes>
            0 -1 307 -1.3797160238027573e-02</internalNodes>
          <leafValues>
            5.9695601463317871e-01 -1.0871682316064835e-01</leafValues></_>
        <_>
          <internalNodes>
            0 -1 360 -2.5564011186361313e-02</internalNodes>
          <leafValues>
            5.0637149810791016e-01 -1.1918529868125916e-01</leafValues></_>
        <_>
          <internalNodes>
            0 -1 163 -2.3033795878291130e-02</internalNodes>
          <leafValues>
            6.4651340246200562e-01 -8.2532331347465515e-02</leafValues></_>
        <_>
          <internalNodes>
            0 -1 230 8.4728509187698364e-02</internalNodes>
          <leafValues>
            1.2547810375690460e-01 -4.9710020422935486e-01</leafValues></_>
        <_>
          <internalNodes>
            0 -1 422 -2.3605698347091675e-01</internalNodes>
          <leafValues>
            -5.4132026433944702e-01 1.1333618313074112e-01</leafValues></_>
        <_>
          <internalNodes>
            0 -1 580 2.3575965315103531e-02</internalNodes>
          <leafValues>
            -1.4034719765186310e-01 4.3563532829284668e-01</leafValues></_>
        <_>
          <internalNodes>
            0 -1 578 -2.0399533212184906e-02</internalNodes>
          <leafValues>
            5.5652391910552979e-01 -1.3176512718200684e-01</leafValues></_>
        <_>
          <internalNodes>
            0 -1 357 -3.9388302713632584e-02</internalNodes>
          <leafValues>
            3.3767113089561462e-01 -1.4796859025955200e-01</leafValues></_>
        <_>
          <internalNodes>
            0 -1 87 8.3644762635231018e-03</internalNodes>
          <leafValues>
            -1.2394219636917114e-01 4.7437140345573425e-01</leafValues></_>
        <_>
          <internalNodes>
            0 -1 475 -9.9654849618673325e-03</internalNodes>
          <leafValues>
            3.8479158282279968e-01 -1.7763851583003998e-01</leafValues></_>
        <_>
          <internalNodes>
            0 -1 347 4.5387643575668335e-01</internalNodes>
          <leafValues>
            -8.7561354041099548e-02 6.4471298456192017e-01</leafValues></_>
        <_>
          <internalNodes>
            0 -1 665 -4.9202363006770611e-03</internalNodes>
          <leafValues>
            -4.6909344196319580e-01 1.3255697488784790e-01</leafValues></_>
        <_>
          <internalNodes>
            0 -1 253 7.2741652838885784e-03</internalNodes>
          <leafValues>
            -1.3404953479766846e-01 4.3299883604049683e-01</leafValues></_>
        <_>
          <internalNodes>
            0 -1 70 -2.2205578163266182e-02</internalNodes>
          <leafValues>
            4.1302251815795898e-01 -1.4738258719444275e-01</leafValues></_></weakClassifiers></_>
    <!-- stage 3 -->
    <_>
      <maxWeakCount>22</maxWeakCount>
      <stageThreshold>-7.6306420564651489e-01</stageThreshold>
      <weakClassifiers>
        <_>
          <internalNodes>
            0 -1 166 1.9640564918518066e-01</internalNodes>
          <leafValues>
            3.9808237552642822e-01 -6.5760868787765503e-01</leafValues></_>
        <_>
          <internalNodes>
            0 -1 393 -2.7753140777349472e-02</internalNodes>
          <leafValues>
            5.5139088630676270e-01 -1.1588389426469803e-01</leafValues></_>
        <_>
          <internalNodes>
            0 -1 354 3.0562095344066620e-02</internalNodes>
          <leafValues>
            -1.4175605773925781e-01 5.3666245937347412e-01</leafValues></_>
        <_>
          <internalNodes>
            0 -1 299 -8.0308176577091217e-02</internalNodes>
          <leafValues>
            -5.1545977592468262e-01 1.2281358242034912e-01</leafValues></_>
        <_>
          <internalNodes>
            0 -1 15 4.3478257954120636e-02</internalNodes>
          <leafValues>
            6.8726502358913422e-02 -6.3695317506790161e-01</leafValues></_>
        <_>
          <internalNodes>
            0 -1 14 -3.6254275590181351e-02</internalNodes>
          <leafValues>
            -5.1663714647293091e-01 1.2013736367225647e-01</leafValues></_>
        <_>
          <internalNodes>
            0 -1 477 -1.2389011681079865e-02</internalNodes>
          <leafValues>
            5.1442861557006836e-01 -1.1941598355770111e-01</leafValues></_>
        <_>
          <internalNodes>
            0 -1 329 -4.6049947850406170e-03</internalNodes>
          <leafValues>
            3.8180193305015564e-01 -1.4265652000904083e-01</leafValues></_>
        <_>
          <internalNodes>
            0 -1 98 2.4639919400215149e-01</internalNodes>
          <leafValues>
            7.4352100491523743e-02 -5.3737705945968628e-01</leafValues></_>
        <_>
          <internalNodes>
            0 -1 8 2.4839490652084351e-02</internalNodes>
          <leafValues>
            9.7796909511089325e-02 -4.9689039587974548e-01</leafValues></_>
        <_>
          <internalNodes>
            0 -1 126 -7.4227247387170792e-03</internalNodes>
          <leafValues>
            -4.3946149945259094e-01 1.2278411537408829e-01</leafValues></_>
        <_>
          <internalNodes>
            0 -1 581 2.9359728097915649e-02</internalNodes>
          <leafValues>
            -1.0979527235031128e-01 4.7346538305282593e-01</leafValues></_>
        <_>
          <internalNodes>
            0 -1 277 5.0599551200866699e-01</internalNodes>
          <leafValues>
            -9.4297870993614197e-02 5.5446082353591919e-01</leafValues></_>
        <_>
          <internalNodes>
            0 -1 441 -1.7878483980894089e-02</internalNodes>
          <leafValues>
            7.3028451204299927e-01 -6.2616653740406036e-02</leafValues></_>
        <_>
          <internalNodes>
            0 -1 308 7.6773064211010933e-03</internalNodes>
          <leafValues>
            -9.7994379699230194e-02 4.2170155048370361e-01</leafValues></_>
        <_>
          <internalNodes>
            0 -1 677 -3.1613633036613464e-03</internalNodes>
          <leafValues>
            -3.5703444480895996e-01 1.3186584413051605e-01</leafValues></_>
        <_>
          <internalNodes>
            0 -1 464 1.4632578939199448e-02</internalNodes>
          <leafValues>
            -1.4845989644527435e-01 3.1172651052474976e-01</leafValues></_>
        <_>
          <internalNodes>
            0 -1 413 -1.4154778793454170e-02</internalNodes>
          <leafValues>
            4.1481301188468933e-01 -1.2965728342533112e-01</leafValues></_>
        <_>
          <internalNodes>
            0 -1 342 2.5336138904094696e-02</internalNodes>
          <leafValues>
            -9.8164439201354980e-02 5.0377750396728516e-01</leafValues></_>
        <_>
          <internalNodes>
            0 -1 2 -3.8778325542807579e-03</internalNodes>
          <leafValues>
            -3.9456337690353394e-01 1.3135609030723572e-01</leafValues></_>
        <_>
          <internalNodes>
            0 -1 115 4.3392004445195198e-03</internalNodes>
          <leafValues>
            9.8000243306159973e-02 -4.3186607956886292e-01</leafValues></_>
        <_>
          <internalNodes>
            0 -1 558 4.5483764261007309e-03</internalNodes>
          <leafValues>
            8.5257217288017273e-02 -4.8076638579368591e-01</leafValues></_></weakClassifiers></_>
    <!-- stage 4 -->
    <_>
      <maxWeakCount>23</maxWeakCount>
      <stageThreshold>-7.5818121433258057e-01</stageThreshold>
      <weakClassifiers>
        <_>
          <internalNodes>
            0 -1 116 7.0256795734167099e-03</internalNodes>
          <leafValues>
            4.2134621739387512e-01 -4.2765274643898010e-01</leafValues></_>
        <_>
          <internalNodes>
            0 -1 235 -1.4839272014796734e-02</internalNodes>
          <leafValues>
            3.5942623019218445e-01 -1.9108644127845764e-01</leafValues></_>
        <_>
          <internalNodes>
            0 -1 58 4.9979454278945923e-01</internalNodes>
          <leafValues>
            -1.0400845855474472e-01 7.4161523580551147e-01</leafValues></_>
        <_>
          <internalNodes>
            0 -1 0 4.3243877589702606e-03</internalNodes>
          <leafValues>
            1.4010134339332581e-01 -5.1160913705825806e-01</leafValues></_>
        <_>
          <internalNodes>
            0 -1 394 2.1794982254505157e-02</internalNodes>
          <leafValues>
            -3.5051387548446655e-01 2.2112494707107544e-01</leafValues></_>
        <_>
          <internalNodes>
            0 -1 519 -1.4904247596859932e-02</internalNodes>
          <leafValues>
            -5.5712097883224487e-01 1.5605983138084412e-01</leafValues></_>
        <_>
          <internalNodes>
            0 -1 347 4.0328508615493774e-01</internalNodes>
          <leafValues>
            -9.6301503479480743e-02 6.0378634929656982e-01</leafValues></_>
        <_>
          <internalNodes>
            0 -1 619 1.1707937344908714e-02</internalNodes>
          <leafValues>
            -2.1441452205181122e-01 2.9696214199066162e-01</leafValues></_>
        <_>
          <internalNodes>
            0 -1 193 -9.0621396899223328e-02</internalNodes>
          <leafValues>
            4.2583796381950378e-01 -1.7552289366722107e-01</leafValues></_>
        <_>
          <internalNodes>
            0 -1 83 2.7776159346103668e-02</internalNodes>
          <leafValues>
            -1.2287227809429169e-01 5.5339354276657104e-01</leafValues></_>
        <_>
          <internalNodes>
            0 -1 72 -2.5285366922616959e-02</internalNodes>
          <leafValues>
            4.4652089476585388e-01 -1.1901965737342834e-01</leafValues></_>
        <_>
          <internalNodes>
            0 -1 354 2.5874383747577667e-02</internalNodes>
          <leafValues>
            -1.4773929119110107e-01 3.7708741426467896e-01</leafValues></_>
        <_>
          <internalNodes>
            0 -1 533 -9.5451250672340393e-02</internalNodes>
          <leafValues>
            5.3928124904632568e-01 -1.0576878488063812e-01</leafValues></_>
        <_>
          <internalNodes>
            0 -1 148 -2.9897987842559814e-01</internalNodes>
          <leafValues>
            5.1616656780242920e-01 -1.0305775701999664e-01</leafValues></_>
        <_>
          <internalNodes>
            0 -1 634 -5.9903422370553017e-03</internalNodes>
          <leafValues>
            -5.8646589517593384e-01 9.0708374977111816e-02</leafValues></_>
        <_>
          <internalNodes>
            0 -1 385 5.6832372210919857e-03</internalNodes>
          <leafValues>
            -1.2887999415397644e-01 3.4870994091033936e-01</leafValues></_>
        <_>
          <internalNodes>
            0 -1 469 -2.4336338043212891e-02</internalNodes>
          <leafValues>
            4.0782630443572998e-01 -1.0827302187681198e-01</leafValues></_>
        <_>
          <internalNodes>
            0 -1 574 1.0809923708438873e-01</internalNodes>
          <leafValues>
            -1.0312639176845551e-01 4.3328136205673218e-01</leafValues></_>
        <_>
          <internalNodes>
            0 -1 223 6.0197204351425171e-02</internalNodes>
          <leafValues>
            -1.0102542489767075e-01 4.3239101767539978e-01</leafValues></_>
        <_>
          <internalNodes>
            0 -1 413 1.6340639442205429e-02</internalNodes>
          <leafValues>
            -1.2231864035129547e-01 4.3212920427322388e-01</leafValues></_>
        <_>
          <internalNodes>
            0 -1 127 3.6325264722108841e-02</internalNodes>
          <leafValues>
            6.9778710603713989e-02 -7.6962196826934814e-01</leafValues></_>
        <_>
          <internalNodes>
            0 -1 632 3.8616845849901438e-03</internalNodes>
          <leafValues>
            1.0290388762950897e-01 -4.0741544961929321e-01</leafValues></_>
        <_>
          <internalNodes>
            0 -1 379 -1.8189037218689919e-02</internalNodes>
          <leafValues>
            6.5775692462921143e-01 -6.2764592468738556e-02</leafValues></_></weakClassifiers></_>
    <!-- stage 5 -->
    <_>
      <maxWeakCount>28</maxWeakCount>
      <stageThreshold>-7.3080009222030640e-01</stageThreshold>
      <weakClassifiers>
        <_>
          <internalNodes>
            0 -1 120 -5.0883176736533642e-03</internalNodes>
          <leafValues>
            -2.3739495873451233e-01 4.4096672534942627e-01</leafValues></_>
        <_>
          <internalNodes>
            0 -1 634 4.6566398814320564e-03</internalNodes>
          <leafValues>
            1.3454301655292511e-01 -5.1511704921722412e-01</leafValues></_>
        <_>
          <internalNodes>
            0 -1 324 1.0804217308759689e-02</internalNodes>
          <leafValues>
            -1.1236358433961868e-01 4.4083085656166077e-01</leafValues></_>
        <_>
          <internalNodes>
            0 -1 90 -1.7708901315927505e-02</internalNodes>
          <leafValues>
            -5.2683722972869873e-01 9.3267865478992462e-02</leafValues></_>
        <_>
          <internalNodes>
            0 -1 9 -7.1648992598056793e-02</internalNodes>
          <leafValues>
            -6.0457324981689453e-01 7.4827902019023895e-02</leafValues></_>
        <_>
          <internalNodes>
            0 -1 386 -1.3793678954243660e-02</internalNodes>
          <leafValues>
            4.9281731247901917e-01 -1.0200471431016922e-01</leafValues></_>
        <_>
          <internalNodes>
            0 -1 564 -1.0440910235047340e-02</internalNodes>
          <leafValues>
            -4.6841338276863098e-01 7.1959435939788818e-02</leafValues></_>
        <_>
          <internalNodes>
            0 -1 281 -3.3835506439208984e-01</internalNodes>
          <leafValues>
            3.9945369958877563e-01 -1.1171996593475342e-01</leafValues></_>
        <_>
          <internalNodes>
            0 -1 355 9.1673403978347778e-02</internalNodes>
          <leafValues>
            -8.4425389766693115e-02 5.5004805326461792e-01</leafValues></_>
        <_>
          <internalNodes>
            0 -1 289 -9.1312397271394730e-03</internalNodes>
          <leafValues>
            4.8031371831893921e-01 -1.0588020086288452e-01</leafValues></_>
        <_>
          <internalNodes>
            0 -1 342 -2.4558767676353455e-02</internalNodes>
          <leafValues>
            3.8079616427421570e-01 -1.1274258792400360e-01</leafValues></_>
        <_>
          <internalNodes>
            0 -1 470 -2.0149756222963333e-02</internalNodes>
          <leafValues>
            3.2909438014030457e-01 -1.4039637148380280e-01</leafValues></_>
        <_>
          <internalNodes>
            0 -1 604 5.8867651969194412e-03</internalNodes>
          <leafValues>
            1.2003354728221893e-01 -4.1088613867759705e-01</leafValues></_>
        <_>
          <internalNodes>
            0 -1 499 9.9129332229495049e-03</internalNodes>
          <leafValues>
            -9.6302360296249390e-02 5.2718013525009155e-01</leafValues></_>
        <_>
          <internalNodes>
            0 -1 123 6.0301925987005234e-03</internalNodes>
          <leafValues>
            8.5943713784217834e-02 -5.6741672754287720e-01</leafValues></_>
        <_>
          <internalNodes>
            0 -1 143 -1.6531990841031075e-03</internalNodes>
          <leafValues>
            2.2711950540542603e-01 -1.8922561407089233e-01</leafValues></_>
        <_>
          <internalNodes>
            0 -1 51 1.0518124699592590e-01</internalNodes>
          <leafValues>
            -9.7804024815559387e-02 4.8596858978271484e-01</leafValues></_>
        <_>
          <internalNodes>
            0 -1 222 -4.4421248137950897e-02</internalNodes>
          <leafValues>
            4.5935380458831787e-01 -9.2499516904354095e-02</leafValues></_>
        <_>
          <internalNodes>
            0 -1 400 -3.8545029237866402e-03</internalNodes>
          <leafValues>
            2.9104390740394592e-01 -1.4278535544872284e-01</leafValues></_>
        <_>
          <internalNodes>
            0 -1 112 -6.9204062223434448e-02</internalNodes>
          <leafValues>
            4.1094729304313660e-01 -1.1239089816808701e-01</leafValues></_>
        <_>
          <internalNodes>
            0 -1 58 5.8207786083221436e-01</internalNodes>
          <leafValues>
            -5.9492178261280060e-02 5.9195965528488159e-01</leafValues></_>
        <_>
          <internalNodes>
            0 -1 316 7.8311592340469360e-02</internalNodes>
          <leafValues>
            7.1217916905879974e-02 -7.1326273679733276e-01</leafValues></_>
        <_>
          <internalNodes>
            0 -1 268 1.0253325104713440e-02</internalNodes>
          <leafValues>
            8.8477000594139099e-02 -4.1258201003074646e-01</leafValues></_>
        <_>
          <internalNodes>
            0 -1 218 -1.0550403967499733e-02</internalNodes>
          <leafValues>
            4.8488366603851318e-01 -8.7948508560657501e-02</leafValues></_>
        <_>
          <internalNodes>
            0 -1 444 7.5794875621795654e-02</internalNodes>
          <leafValues>
            5.4661661386489868e-02 -8.3322769403457642e-01</leafValues></_>
        <_>
          <internalNodes>
            0 -1 535 -2.4889674037694931e-02</internalNodes>
          <leafValues>
            3.2755771279335022e-01 -1.2592557072639465e-01</leafValues></_>
        <_>
          <internalNodes>
            0 -1 417 1.1639988049864769e-02</internalNodes>
          <leafValues>
            -9.6933260560035706e-02 3.8322538137435913e-01</leafValues></_>
        <_>
          <internalNodes>
            0 -1 572 -1.8041139468550682e-02</internalNodes>
          <leafValues>
            4.3166264891624451e-01 -9.4254568219184875e-02</leafValues></_></weakClassifiers></_>
    <!-- stage 6 -->
    <_>
      <maxWeakCount>30</maxWeakCount>
      <stageThreshold>-6.6151380538940430e-01</stageThreshold>
      <weakClassifiers>
        <_>
          <internalNodes>
            0 -1 103 -1.5612056478857994e-02</internalNodes>
          <leafValues>
            -2.6751592755317688e-01 4.0357407927513123e-01</leafValues></_>
        <_>
          <internalNodes>
            0 -1 591 -8.3593260496854782e-03</internalNodes>
          <leafValues>
            4.3485841155052185e-01 -7.8601777553558350e-02</leafValues></_>
        <_>
          <internalNodes>
            0 -1 144 -1.1032094061374664e-01</internalNodes>
          <leafValues>
            3.6357688903808594e-01 -1.1136925220489502e-01</leafValues></_>
        <_>
          <internalNodes>
            0 -1 226 3.4956550598144531e-01</internalNodes>
          <leafValues>
            -9.5354057848453522e-02 5.8458220958709717e-01</leafValues></_>
        <_>
          <internalNodes>
            0 -1 431 3.1177787110209465e-02</internalNodes>
          <leafValues>
            -8.2291677594184875e-02 5.1059949398040771e-01</leafValues></_>
        <_>
          <internalNodes>
            0 -1 44 5.6193917989730835e-03</internalNodes>
          <leafValues>
            5.5942613631486893e-02 -5.3914731740951538e-01</leafValues></_>
        <_>
          <internalNodes>
            0 -1 94 -6.3187368214130402e-03</internalNodes>
          <leafValues>
            3.1455084681510925e-01 -1.2762503325939178e-01</leafValues></_>
        <_>
          <internalNodes>
            0 -1 663 8.1818159669637680e-03</internalNodes>
          <leafValues>
            8.3649531006813049e-02 -4.5488792657852173e-01</leafValues></_>
        <_>
          <internalNodes>
            0 -1 664 -3.9109718054533005e-03</internalNodes>
          <leafValues>
            -4.2166915535926819e-01 1.2025291472673416e-01</leafValues></_>
        <_>
          <internalNodes>
            0 -1 300 6.3915569335222244e-03</internalNodes>
          <leafValues>
            -1.2635774910449982e-01 3.3560293912887573e-01</leafValues></_>
        <_>
          <internalNodes>
            0 -1 232 8.9105833321809769e-03</internalNodes>
          <leafValues>
            -1.0202573239803314e-01 3.6263176798820496e-01</leafValues></_>
        <_>
          <internalNodes>
            0 -1 163 2.3716585710644722e-02</internalNodes>
          <leafValues>
            -8.7823450565338135e-02 4.5626294612884521e-01</leafValues></_>
        <_>
          <internalNodes>
            0 -1 364 6.6170699894428253e-02</internalNodes>
          <leafValues>
            -8.6351342499256134e-02 4.5550644397735596e-01</leafValues></_>
        <_>
          <internalNodes>
            0 -1 205 -4.5352444052696228e-02</internalNodes>
          <leafValues>
            -6.6636574268341064e-01 6.9512918591499329e-02</leafValues></_>
        <_>
          <internalNodes>
            0 -1 124 -1.1139724403619766e-02</internalNodes>
          <leafValues>
            -6.8701499700546265e-01 4.5706387609243393e-02</leafValues></_>
        <_>
          <internalNodes>
            0 -1 448 -9.7499210387468338e-03</internalNodes>
          <leafValues>
            4.9364069104194641e-01 -7.8440435230731964e-02</leafValues></_>
        <_>
          <internalNodes>
            0 -1 484 1.4801174402236938e-02</internalNodes>
          <leafValues>
            -1.0362540185451508e-01 3.5608771443367004e-01</leafValues></_>
        <_>
          <internalNodes>
            0 -1 491 5.3000594489276409e-03</internalNodes>
          <leafValues>
            -1.4157865941524506e-01 2.8073182702064514e-01</leafValues></_>
        <_>
          <internalNodes>
            0 -1 189 -7.9377740621566772e-03</internalNodes>
          <leafValues>
            -5.8045142889022827e-01 5.7285334914922714e-02</leafValues></_>
        <_>
          <internalNodes>
            0 -1 38 -1.0325655341148376e-01</internalNodes>
          <leafValues>
            3.4142172336578369e-01 -1.0859163850545883e-01</leafValues></_>
        <_>
          <internalNodes>
            0 -1 649 -2.9274646192789078e-02</internalNodes>
          <leafValues>
            4.4822433590888977e-01 -9.2454187572002411e-02</leafValues></_>
        <_>
          <internalNodes>
            0 -1 19 -3.6425924301147461e-01</internalNodes>
          <leafValues>
            -4.8728251457214355e-01 8.5562326014041901e-02</leafValues></_>
        <_>
          <internalNodes>
            0 -1 228 1.1781357228755951e-01</internalNodes>
          <leafValues>
            9.6292518079280853e-02 -4.3522840738296509e-01</leafValues></_>
        <_>
          <internalNodes>
            0 -1 528 -9.2938065528869629e-02</internalNodes>
          <leafValues>
            3.3344358205795288e-01 -1.0688176751136780e-01</leafValues></_>
        <_>
          <internalNodes>
            0 -1 210 -1.5063869953155518e-01</internalNodes>
          <leafValues>
            4.4364121556282043e-01 -9.9932596087455750e-02</leafValues></_>
        <_>
          <internalNodes>
            0 -1 413 1.2957561761140823e-02</internalNodes>
          <leafValues>
            -1.1025306582450867e-01 3.1744027137756348e-01</leafValues></_>
        <_>
          <internalNodes>
            0 -1 342 -1.0358748957514763e-02</internalNodes>
          <leafValues>
            2.8265216946601868e-01 -1.6133762896060944e-01</leafValues></_>
        <_>
          <internalNodes>
            0 -1 406 -1.3396980240941048e-02</internalNodes>
          <leafValues>
            2.8266400098800659e-01 -1.1519087851047516e-01</leafValues></_>
        <_>
          <internalNodes>
            0 -1 596 1.5113566769286990e-04</internalNodes>
          <leafValues>
            -1.9147296249866486e-01 1.8607947230339050e-01</leafValues></_>
        <_>
          <internalNodes>
            0 -1 188 -5.5970377288758755e-03</internalNodes>
          <leafValues>
            -4.5601910352706909e-01 8.3453580737113953e-02</leafValues></_></weakClassifiers></_>
    <!-- stage 7 -->
    <_>
      <maxWeakCount>34</maxWeakCount>
      <stageThreshold>-6.5727424621582031e-01</stageThreshold>
      <weakClassifiers>
        <_>
          <internalNodes>
            0 -1 327 4.6170996502041817e-03</internalNodes>
          <leafValues>
            1.7496599256992340e-01 5.8365589380264282e-01</leafValues></_>
        <_>
          <internalNodes>
            0 -1 7 3.5813599824905396e-02</internalNodes>
          <leafValues>
            1.1523193866014481e-01 -4.9293667078018188e-01</leafValues></_>
        <_>
          <internalNodes>
            0 -1 172 8.7420269846916199e-03</internalNodes>
          <leafValues>
            -9.1001115739345551e-02 4.6019777655601501e-01</leafValues></_>
        <_>
          <internalNodes>
            0 -1 404 4.3696034699678421e-03</internalNodes>
          <leafValues>
            -1.5440988540649414e-01 2.6379242539405823e-01</leafValues></_>
        <_>
          <internalNodes>
            0 -1 168 1.5663173049688339e-02</internalNodes>
          <leafValues>
            -1.2742798030376434e-01 3.0209064483642578e-01</leafValues></_>
        <_>
          <internalNodes>
            0 -1 314 7.3884809389710426e-03</internalNodes>
          <leafValues>
            -1.2696059048175812e-01 2.7762606739997864e-01</leafValues></_>
        <_>
          <internalNodes>
            0 -1 1 4.3291202746331692e-03</internalNodes>
          <leafValues>
            7.6935090124607086e-02 -4.5797005295753479e-01</leafValues></_>
        <_>
          <internalNodes>
            0 -1 1 -3.7011872045695782e-03</internalNodes>
          <leafValues>
            -4.0737590193748474e-01 8.5196793079376221e-02</leafValues></_>
        <_>
          <internalNodes>
            0 -1 215 2.3302245140075684e-01</internalNodes>
          <leafValues>
            7.5206197798252106e-02 -4.8627400398254395e-01</leafValues></_>
        <_>
          <internalNodes>
            0 -1 199 2.1030050516128540e-01</internalNodes>
          <leafValues>
            6.2217049300670624e-02 -5.8878868818283081e-01</leafValues></_>
        <_>
          <internalNodes>
            0 -1 416 -2.6134011149406433e-01</internalNodes>
          <leafValues>
            -4.5102444291114807e-01 8.2736484706401825e-02</leafValues></_>
        <_>
          <internalNodes>
            0 -1 17 -5.5476397275924683e-02</internalNodes>
          <leafValues>
            -5.4968088865280151e-01 4.4403586536645889e-02</leafValues></_>
        <_>
          <internalNodes>
            0 -1 595 4.4279536232352257e-03</internalNodes>
          <leafValues>
            -1.2319526821374893e-01 2.9677060246467590e-01</leafValues></_>
        <_>
          <internalNodes>
            0 -1 600 5.0337035208940506e-03</internalNodes>
          <leafValues>
            8.2173451781272888e-02 -3.6648952960968018e-01</leafValues></_>
        <_>
          <internalNodes>
            0 -1 79 -1.4395050704479218e-02</internalNodes>
          <leafValues>
            3.6731046438217163e-01 -9.2874608933925629e-02</leafValues></_>
        <_>
          <internalNodes>
            0 -1 466 3.6770023405551910e-02</internalNodes>
          <leafValues>
            -8.0840930342674255e-02 4.3752741813659668e-01</leafValues></_>
        <_>
          <internalNodes>
            0 -1 65 1.7792042344808578e-02</internalNodes>
          <leafValues>
            8.4147810935974121e-02 -4.5446482300758362e-01</leafValues></_>
        <_>
          <internalNodes>
            0 -1 513 -2.0862963050603867e-02</internalNodes>
          <leafValues>
            5.4604697227478027e-01 -5.9617511928081512e-02</leafValues></_>
        <_>
          <internalNodes>
            0 -1 110 7.2478652000427246e-03</internalNodes>
          <leafValues>
            6.5504059195518494e-02 -5.6320118904113770e-01</leafValues></_>
        <_>
          <internalNodes>
            0 -1 560 6.1514452099800110e-03</internalNodes>
          <leafValues>
            -1.1589816212654114e-01 2.9036328196525574e-01</leafValues></_>
        <_>
          <internalNodes>
            0 -1 526 8.0393003299832344e-03</internalNodes>
          <leafValues>
            -8.8623337447643280e-02 4.4769108295440674e-01</leafValues></_>
        <_>
          <internalNodes>
            0 -1 277 5.4866665601730347e-01</internalNodes>
          <leafValues>
            -8.8685348629951477e-02 4.4494304060935974e-01</leafValues></_>
        <_>
          <internalNodes>
            0 -1 647 5.9175416827201843e-03</internalNodes>
          <leafValues>
            -9.7064964473247528e-02 3.6642467975616455e-01</leafValues></_>
        <_>
          <internalNodes>
            0 -1 435 9.7289621829986572e-02</internalNodes>
          <leafValues>
            5.1230154931545258e-02 -8.5265415906906128e-01</leafValues></_>
        <_>
          <internalNodes>
            0 -1 341 5.0475619733333588e-02</internalNodes>
          <leafValues>
            5.0864625722169876e-02 -5.4019409418106079e-01</leafValues></_>
        <_>
          <internalNodes>
            0 -1 269 2.4344101548194885e-02</internalNodes>
          <leafValues>
            5.2206043154001236e-02 -6.1068737506866455e-01</leafValues></_>
        <_>
          <internalNodes>
            0 -1 289 -6.0448274016380310e-03</internalNodes>
          <leafValues>
            3.1754440069198608e-01 -1.2265206128358841e-01</leafValues></_>
        <_>
          <internalNodes>
            0 -1 48 4.5260928571224213e-02</internalNodes>
          <leafValues>
            -5.9365216642618179e-02 5.0537890195846558e-01</leafValues></_>
        <_>
          <internalNodes>
            0 -1 603 -4.8704333603382111e-03</internalNodes>
          <leafValues>
            -4.6471169590950012e-01 7.5064189732074738e-02</leafValues></_>
        <_>
          <internalNodes>
            0 -1 350 -1.2323128990828991e-02</internalNodes>
          <leafValues>
            4.4880267977714539e-01 -7.3728702962398529e-02</leafValues></_>
        <_>
          <internalNodes>
            0 -1 652 -1.6751989722251892e-02</internalNodes>
          <leafValues>
            2.9669389128684998e-01 -9.5933400094509125e-02</leafValues></_>
        <_>
          <internalNodes>
            0 -1 584 -3.2321497797966003e-02</internalNodes>
          <leafValues>
            5.2424800395965576e-01 -6.7301280796527863e-02</leafValues></_>
        <_>
          <internalNodes>
            0 -1 201 -1.5818581450730562e-03</internalNodes>
          <leafValues>
            2.1308135986328125e-01 -1.6189852356910706e-01</leafValues></_>
        <_>
          <internalNodes>
            0 -1 179 3.7806712090969086e-02</internalNodes>
          <leafValues>
            -7.9775914549827576e-02 4.1302588582038879e-01</leafValues></_></weakClassifiers></_>
    <!-- stage 8 -->
    <_>
      <maxWeakCount>43</maxWeakCount>
      <stageThreshold>-7.3787987232208252e-01</stageThreshold>
      <weakClassifiers>
        <_>
          <internalNodes>
            0 -1 183 6.1865816824138165e-03</internalNodes>
          <leafValues>
            4.0376648306846619e-01 -2.0869565010070801e-01</leafValues></_>
        <_>
          <internalNodes>
            0 -1 559 -6.6700801253318787e-03</internalNodes>
          <leafValues>
            -4.4012790918350220e-01 1.0351613909006119e-01</leafValues></_>
        <_>
          <internalNodes>
            0 -1 31 4.1595911607146263e-03</internalNodes>
          <leafValues>
            9.0294264256954193e-02 -4.1679385304450989e-01</leafValues></_>
        <_>
          <internalNodes>
            0 -1 25 7.0025762543082237e-03</internalNodes>
          <leafValues>
            7.8606016933917999e-02 -4.2770832777023315e-01</leafValues></_>
        <_>
          <internalNodes>
            0 -1 242 -2.4870797991752625e-02</internalNodes>
          <leafValues>
            2.9248550534248352e-01 -1.2973010540008545e-01</leafValues></_>
        <_>
          <internalNodes>
            0 -1 3 4.1733826510608196e-03</internalNodes>
          <leafValues>
            9.8360873758792877e-02 -3.4294423460960388e-01</leafValues></_>
        <_>
          <internalNodes>
            0 -1 399 3.0553117394447327e-02</internalNodes>
          <leafValues>
            -1.1368941515684128e-01 3.1939011812210083e-01</leafValues></_>
        <_>
          <internalNodes>
            0 -1 518 8.2507662475109100e-02</internalNodes>
          <leafValues>
            -1.0688710212707520e-01 3.6647164821624756e-01</leafValues></_>
        <_>
          <internalNodes>
            0 -1 563 2.8751740232110023e-02</internalNodes>
          <leafValues>
            -1.0221335291862488e-01 3.7929719686508179e-01</leafValues></_>
        <_>
          <internalNodes>
            0 -1 70 -2.7737557888031006e-02</internalNodes>
          <leafValues>
            3.9603319764137268e-01 -1.2229829281568527e-01</leafValues></_>
        <_>
          <internalNodes>
            0 -1 79 1.3123976066708565e-02</internalNodes>
          <leafValues>
            -1.2161655724048615e-01 3.3711716532707214e-01</leafValues></_>
        <_>
          <internalNodes>
            0 -1 280 -1.9955570995807648e-01</internalNodes>
          <leafValues>
            4.0585014224052429e-01 -7.6006732881069183e-02</leafValues></_>
        <_>
          <internalNodes>
            0 -1 56 3.7699171900749207e-01</internalNodes>
          <leafValues>
            -7.6074801385402679e-02 4.3717792630195618e-01</leafValues></_>
        <_>
          <internalNodes>
            0 -1 413 1.8525529652833939e-02</internalNodes>
          <leafValues>
            -8.9302726089954376e-02 3.6866590380668640e-01</leafValues></_>
        <_>
          <internalNodes>
            0 -1 514 2.7714248746633530e-02</internalNodes>
          <leafValues>
            -9.1145478188991547e-02 3.7299016118049622e-01</leafValues></_>
        <_>
          <internalNodes>
            0 -1 662 9.6747251227498055e-03</internalNodes>
          <leafValues>
            6.1692588031291962e-02 -5.7861119508743286e-01</leafValues></_>
        <_>
          <internalNodes>
            0 -1 620 2.5600004941225052e-02</internalNodes>
          <leafValues>
            -1.1587540060281754e-01 2.8257307410240173e-01</leafValues></_>
        <_>
          <internalNodes>
            0 -1 616 -2.8421793133020401e-02</internalNodes>
          <leafValues>
            4.6906846761703491e-01 -8.2748316228389740e-02</leafValues></_>
        <_>
          <internalNodes>
            0 -1 410 8.1746894866228104e-03</internalNodes>
          <leafValues>
            7.1134209632873535e-02 -4.7137057781219482e-01</leafValues></_>
        <_>
          <internalNodes>
            0 -1 604 -8.2622123882174492e-03</internalNodes>
          <leafValues>
            -5.2675330638885498e-01 5.3452186286449432e-02</leafValues></_>
        <_>
          <internalNodes>
            0 -1 475 -1.1451695114374161e-02</internalNodes>
          <leafValues>
            2.7401170134544373e-01 -1.0708235949277878e-01</leafValues></_>
        <_>
          <internalNodes>
            0 -1 469 -1.3656355440616608e-02</internalNodes>
          <leafValues>
            2.4973283708095551e-01 -1.3850526511669159e-01</leafValues></_>
        <_>
          <internalNodes>
            0 -1 157 -7.5903534889221191e-02</internalNodes>
          <leafValues>
            2.7917304635047913e-01 -1.2683402001857758e-01</leafValues></_>
        <_>
          <internalNodes>
            0 -1 203 2.9361201450228691e-03</internalNodes>
          <leafValues>
            -1.5893726050853729e-01 2.4221959710121155e-01</leafValues></_>
        <_>
          <internalNodes>
            0 -1 472 1.1733109131455421e-02</internalNodes>
          <leafValues>
            6.1663296073675156e-02 -5.7438093423843384e-01</leafValues></_>
        <_>
          <internalNodes>
            0 -1 167 -1.3125402852892876e-02</internalNodes>
          <leafValues>
            4.1652113199234009e-01 -7.7021189033985138e-02</leafValues></_>
        <_>
          <internalNodes>
            0 -1 364 -8.2530513405799866e-02</internalNodes>
          <leafValues>
            4.7113782167434692e-01 -5.7630389928817749e-02</leafValues></_>
        <_>
          <internalNodes>
            0 -1 448 7.6249120756983757e-03</internalNodes>
          <leafValues>
            -8.4317766129970551e-02 3.6482557654380798e-01</leafValues></_>
        <_>
          <internalNodes>
            0 -1 227 4.4096934795379639e-01</internalNodes>
          <leafValues>
            -5.9418734163045883e-02 5.5645358562469482e-01</leafValues></_>
        <_>
          <internalNodes>
            0 -1 255 8.7455315515398979e-03</internalNodes>
          <leafValues>
            -1.0161872953176498e-01 3.0092069506645203e-01</leafValues></_>
        <_>
          <internalNodes>
            0 -1 78 -6.7738904617726803e-03</internalNodes>
          <leafValues>
            2.8052183985710144e-01 -1.0962934046983719e-01</leafValues></_>
        <_>
          <internalNodes>
            0 -1 34 -6.4378525130450726e-03</internalNodes>
          <leafValues>
            -4.7181484103202820e-01 6.7861922085285187e-02</leafValues></_>
        <_>
          <internalNodes>
            0 -1 257 1.0658793151378632e-01</internalNodes>
          <leafValues>
            -9.0124815702438354e-02 3.1780329346656799e-01</leafValues></_>
        <_>
          <internalNodes>
            0 -1 607 6.1193250119686127e-02</internalNodes>
          <leafValues>
            -9.9773094058036804e-02 3.3569094538688660e-01</leafValues></_>
        <_>
          <internalNodes>
            0 -1 672 -1.7214022227562964e-04</internalNodes>
          <leafValues>
            1.6839261353015900e-01 -1.8846987187862396e-01</leafValues></_>
        <_>
          <internalNodes>
            0 -1 95 -6.4511429518461227e-03</internalNodes>
          <leafValues>
            -3.8238203525543213e-01 7.7704191207885742e-02</leafValues></_>
        <_>
          <internalNodes>
            0 -1 549 1.2693610042333603e-02</internalNodes>
          <leafValues>
            -9.8884865641593933e-02 3.1848782300949097e-01</leafValues></_>
        <_>
          <internalNodes>
            0 -1 99 -6.9457744248211384e-03</internalNodes>
          <leafValues>
            -5.1387250423431396e-01 5.9759382158517838e-02</leafValues></_>
        <_>
          <internalNodes>
            0 -1 69 4.0549181401729584e-02</internalNodes>
          <leafValues>
            6.2811896204948425e-02 -4.3912377953529358e-01</leafValues></_>
        <_>
          <internalNodes>
            0 -1 276 1.5400576591491699e-01</internalNodes>
          <leafValues>
            -6.8673484027385712e-02 4.7499981522560120e-01</leafValues></_>
        <_>
          <internalNodes>
            0 -1 437 3.0527855269610882e-03</internalNodes>
          <leafValues>
            -1.7949171364307404e-01 1.7094625532627106e-01</leafValues></_>
        <_>
          <internalNodes>
            0 -1 275 -1.5782126784324646e-01</internalNodes>
          <leafValues>
            2.4039478600025177e-01 -1.3812541961669922e-01</leafValues></_>
        <_>
          <internalNodes>
            0 -1 402 -2.6365414261817932e-02</internalNodes>
          <leafValues>
            4.0667131543159485e-01 -8.2371138036251068e-02</leafValues></_></weakClassifiers></_>
    <!-- stage 9 -->
    <_>
      <maxWeakCount>49</maxWeakCount>
      <stageThreshold>-6.6201388835906982e-01</stageThreshold>
      <weakClassifiers>
        <_>
          <internalNodes>
            0 -1 130 3.6042097955942154e-02</internalNodes>
          <leafValues>
            3.8149145245552063e-01 -2.8275862336158752e-01</leafValues></_>
        <_>
          <internalNodes>
            0 -1 253 1.0344363749027252e-02</internalNodes>
          <leafValues>
            -7.1711391210556030e-02 3.9307457208633423e-01</leafValues></_>
        <_>
          <internalNodes>
            0 -1 664 3.8671595975756645e-03</internalNodes>
          <leafValues>
            8.4915094077587128e-02 -3.5496485233306885e-01</leafValues></_>
        <_>
          <internalNodes>
            0 -1 541 -6.2691955827176571e-03</internalNodes>
          <leafValues>
            1.9327273964881897e-01 -1.4545081555843353e-01</leafValues></_>
        <_>
          <internalNodes>
            0 -1 625 4.1911052539944649e-03</internalNodes>
          <leafValues>
            -1.3507094979286194e-01 2.3863096535205841e-01</leafValues></_>
        <_>
          <internalNodes>
            0 -1 122 5.4014071822166443e-02</internalNodes>
          <leafValues>
            4.6134755015373230e-02 -4.5267638564109802e-01</leafValues></_>
        <_>
          <internalNodes>
            0 -1 388 -2.7442030608654022e-02</internalNodes>
          <leafValues>
            4.0183076262474060e-01 -5.0627633929252625e-02</leafValues></_>
        <_>
          <internalNodes>
            0 -1 40 9.7464218735694885e-02</internalNodes>
          <leafValues>
            -7.0063114166259766e-02 4.7530737519264221e-01</leafValues></_>
        <_>
          <internalNodes>
            0 -1 475 -1.2403874658048153e-02</internalNodes>
          <leafValues>
            3.2797425985336304e-01 -1.0790876299142838e-01</leafValues></_>
        <_>
          <internalNodes>
            0 -1 136 -5.1898141391575336e-03</internalNodes>
          <leafValues>
            -3.9557990431785583e-01 7.6465360820293427e-02</leafValues></_>
        <_>
          <internalNodes>
            0 -1 28 4.0416181087493896e-02</internalNodes>
          <leafValues>
            5.4569773375988007e-02 -5.5324459075927734e-01</leafValues></_>
        <_>
          <internalNodes>
            0 -1 307 -1.2311792001128197e-02</internalNodes>
          <leafValues>
            3.1767991185188293e-01 -9.4368778169155121e-02</leafValues></_>
        <_>
          <internalNodes>
            0 -1 135 7.0521688461303711e-01</internalNodes>
          <leafValues>
            -6.5772302448749542e-02 4.2683145403862000e-01</leafValues></_>
        <_>
          <internalNodes>
            0 -1 232 -1.3443246483802795e-02</internalNodes>
          <leafValues>
            3.7585672736167908e-01 -7.9862654209136963e-02</leafValues></_>
        <_>
          <internalNodes>
            0 -1 223 -2.8525508940219879e-02</internalNodes>
          <leafValues>
            2.1540819108486176e-01 -1.3854716718196869e-01</leafValues></_>
        <_>
          <internalNodes>
            0 -1 163 -2.7081128209829330e-02</internalNodes>
          <leafValues>
            4.8501664400100708e-01 -7.4487879872322083e-02</leafValues></_>
        <_>
          <internalNodes>
            0 -1 605 6.8555986508727074e-03</internalNodes>
          <leafValues>
            5.9700965881347656e-02 -4.7771990299224854e-01</leafValues></_>
        <_>
          <internalNodes>
            0 -1 239 2.2868809103965759e-01</internalNodes>
          <leafValues>
            3.2085452228784561e-02 -7.5203001499176025e-01</leafValues></_>
        <_>
          <internalNodes>
            0 -1 61 -2.2962689399719238e-01</internalNodes>
          <leafValues>
            -4.8905822634696960e-01 4.6356797218322754e-02</leafValues></_>
        <_>
          <internalNodes>
            0 -1 90 2.5177391245961189e-02</internalNodes>
          <leafValues>
            5.7190801948308945e-02 -4.0628090500831604e-01</leafValues></_>
        <_>
          <internalNodes>
            0 -1 525 -1.2894196435809135e-02</internalNodes>
          <leafValues>
            3.4110969305038452e-01 -7.4004322290420532e-02</leafValues></_>
        <_>
          <internalNodes>
            0 -1 525 6.1883558519184589e-03</internalNodes>
          <leafValues>
            -1.2890957295894623e-01 2.6765125989913940e-01</leafValues></_>
        <_>
          <internalNodes>
            0 -1 663 -7.7284406870603561e-03</internalNodes>
          <leafValues>
            -3.3553522825241089e-01 7.7978707849979401e-02</leafValues></_>
        <_>
          <internalNodes>
            0 -1 107 1.0408890247344971e-01</internalNodes>
          <leafValues>
            -8.8385120034217834e-02 2.8602129220962524e-01</leafValues></_>
        <_>
          <internalNodes>
            0 -1 334 -9.4238691963255405e-04</internalNodes>
          <leafValues>
            1.3812577724456787e-01 -1.9654701650142670e-01</leafValues></_>
        <_>
          <internalNodes>
            0 -1 206 3.1187037006020546e-02</internalNodes>
          <leafValues>
            -4.8084881156682968e-02 5.4411661624908447e-01</leafValues></_>
        <_>
          <internalNodes>
            0 -1 87 3.6761723458766937e-03</internalNodes>
          <leafValues>
            -1.2630034983158112e-01 2.2049349546432495e-01</leafValues></_>
        <_>
          <internalNodes>
            0 -1 89 -9.1319968923926353e-03</internalNodes>
          <leafValues>
            2.9450049996376038e-01 -1.1676401644945145e-01</leafValues></_>
        <_>
          <internalNodes>
            0 -1 353 9.5924353227019310e-03</internalNodes>
          <leafValues>
            -1.2996965646743774e-01 2.0287042856216431e-01</leafValues></_>
        <_>
          <internalNodes>
            0 -1 76 4.2185443639755249e-01</internalNodes>
          <leafValues>
            -8.4867931902408600e-02 3.7051665782928467e-01</leafValues></_>
        <_>
          <internalNodes>
            0 -1 236 -7.1197161450982094e-03</internalNodes>
          <leafValues>
            1.7630982398986816e-01 -1.8470562994480133e-01</leafValues></_>
        <_>
          <internalNodes>
            0 -1 184 6.2941862270236015e-03</internalNodes>
          <leafValues>
            9.0308681130409241e-02 -2.8988093137741089e-01</leafValues></_>
        <_>
          <internalNodes>
            0 -1 641 -2.2151233628392220e-02</internalNodes>
          <leafValues>
            2.5263985991477966e-01 -1.0460708290338516e-01</leafValues></_>
        <_>
          <internalNodes>
            0 -1 565 9.5932222902774811e-02</internalNodes>
          <leafValues>
            -9.6744984388351440e-02 2.8512865304946899e-01</leafValues></_>
        <_>
          <internalNodes>
            0 -1 536 -6.3277810811996460e-02</internalNodes>
          <leafValues>
            2.8113633394241333e-01 -1.1107268184423447e-01</leafValues></_>
        <_>
          <internalNodes>
            0 -1 377 8.2862928509712219e-02</internalNodes>
          <leafValues>
            4.8661831766366959e-02 -6.5555077791213989e-01</leafValues></_>
        <_>
          <internalNodes>
            0 -1 441 -1.7976958304643631e-02</internalNodes>
          <leafValues>
            4.8775395750999451e-01 -5.6420076638460159e-02</leafValues></_>
        <_>
          <internalNodes>
            0 -1 213 -3.2152932882308960e-01</internalNodes>
          <leafValues>
            3.7206107378005981e-01 -6.7375533282756805e-02</leafValues></_>
        <_>
          <internalNodes>
            0 -1 425 1.3721872121095657e-02</internalNodes>
          <leafValues>
            -1.3343022763729095e-01 2.0052197575569153e-01</leafValues></_>
        <_>
          <internalNodes>
            0 -1 387 -6.2300688587129116e-03</internalNodes>
          <leafValues>
            2.6486074924468994e-01 -9.1657385230064392e-02</leafValues></_>
        <_>
          <internalNodes>
            0 -1 158 -1.5844404697418213e-01</internalNodes>
          <leafValues>
            -8.3574360609054565e-01 3.0738508328795433e-02</leafValues></_>
        <_>
          <internalNodes>
            0 -1 271 -3.9941634982824326e-02</internalNodes>
          <leafValues>
            -3.9694944024085999e-01 5.0531670451164246e-02</leafValues></_>
        <_>
          <internalNodes>
            0 -1 345 3.9973117411136627e-02</internalNodes>
          <leafValues>
            -6.9944933056831360e-02 3.6339953541755676e-01</leafValues></_>
        <_>
          <internalNodes>
            0 -1 426 1.4207616448402405e-02</internalNodes>
          <leafValues>
            -8.8346518576145172e-02 2.9009485244750977e-01</leafValues></_>
        <_>
          <internalNodes>
            0 -1 266 -7.6155513525009155e-03</internalNodes>
          <leafValues>
            -3.8788229227066040e-01 6.3372701406478882e-02</leafValues></_>
        <_>
          <internalNodes>
            0 -1 147 -1.7122936248779297e-01</internalNodes>
          <leafValues>
            3.8212615251541138e-01 -6.3159778714179993e-02</leafValues></_>
        <_>
          <internalNodes>
            0 -1 217 6.6649639047682285e-03</internalNodes>
          <leafValues>
            -7.5523257255554199e-02 3.0279994010925293e-01</leafValues></_>
        <_>
          <internalNodes>
            0 -1 583 -1.7080832272768021e-02</internalNodes>
          <leafValues>
            2.9351642727851868e-01 -8.2049891352653503e-02</leafValues></_>
        <_>
          <internalNodes>
            0 -1 447 -2.0069148391485214e-02</internalNodes>
          <leafValues>
            5.2421092987060547e-01 -4.3630085885524750e-02</leafValues></_></weakClassifiers></_>
    <!-- stage 10 -->
    <_>
      <maxWeakCount>55</maxWeakCount>
      <stageThreshold>-6.5633141994476318e-01</stageThreshold>
      <weakClassifiers>
        <_>
          <internalNodes>
            0 -1 265 6.8603679537773132e-03</internalNodes>
          <leafValues>
            3.7054044008255005e-01 -2.8994083404541016e-01</leafValues></_>
        <_>
          <internalNodes>
            0 -1 178 1.1965574696660042e-02</internalNodes>
          <leafValues>
            -8.4027290344238281e-02 3.3455604314804077e-01</leafValues></_>
        <_>
          <internalNodes>
            0 -1 120 3.6324528045952320e-03</internalNodes>
          <leafValues>
            8.3294056355953217e-02 -3.3460798859596252e-01</leafValues></_>
        <_>
          <internalNodes>
            0 -1 569 4.0940791368484497e-03</internalNodes>
          <leafValues>
            -1.0927199572324753e-01 2.3877772688865662e-01</leafValues></_>
        <_>
          <internalNodes>
            0 -1 131 -9.9157355725765228e-02</internalNodes>
          <leafValues>
            -3.4937450289726257e-01 7.2671756148338318e-02</leafValues></_>
        <_>
          <internalNodes>
            0 -1 113 1.6959373652935028e-01</internalNodes>
          <leafValues>
            -6.3657142221927643e-02 4.1836082935333252e-01</leafValues></_>
        <_>
          <internalNodes>
            0 -1 278 -1.0431113839149475e-01</internalNodes>
          <leafValues>
            3.1490984559059143e-01 -9.9736921489238739e-02</leafValues></_>
        <_>
          <internalNodes>
            0 -1 344 -1.5797145664691925e-01</internalNodes>
          <leafValues>
            -3.6429774761199951e-01 7.0125281810760498e-02</leafValues></_>
        <_>
          <internalNodes>
            0 -1 123 3.2821348868310452e-03</internalNodes>
          <leafValues>
            7.9340659081935883e-02 -3.5555130243301392e-01</leafValues></_>
        <_>
          <internalNodes>
            0 -1 478 3.7832004018127918e-03</internalNodes>
          <leafValues>
            -1.2723430991172791e-01 2.3610830307006836e-01</leafValues></_>
        <_>
          <internalNodes>
            0 -1 91 -5.9340372681617737e-02</internalNodes>
          <leafValues>
            -5.8541089296340942e-01 5.1675610244274139e-02</leafValues></_>
        <_>
          <internalNodes>
            0 -1 124 -7.7013308182358742e-03</internalNodes>
          <leafValues>
            -4.7662836313247681e-01 4.9413640052080154e-02</leafValues></_>
        <_>
          <internalNodes>
            0 -1 427 9.7861513495445251e-02</internalNodes>
          <leafValues>
            3.4441109746694565e-02 -7.1887630224227905e-01</leafValues></_>
        <_>
          <internalNodes>
            0 -1 230 1.1599440872669220e-01</internalNodes>
          <leafValues>
            4.3776370584964752e-02 -4.9388530850410461e-01</leafValues></_>
        <_>
          <internalNodes>
            0 -1 508 -8.5420541465282440e-02</internalNodes>
          <leafValues>
            -8.1299054622650146e-01 3.1562417745590210e-02</leafValues></_>
        <_>
          <internalNodes>
            0 -1 303 -1.2034636735916138e-01</internalNodes>
          <leafValues>
            3.9035069942474365e-01 -6.0886129736900330e-02</leafValues></_>
        <_>
          <internalNodes>
            0 -1 390 2.6267182081937790e-02</internalNodes>
          <leafValues>
            -1.2264274805784225e-01 2.0600178837776184e-01</leafValues></_>
        <_>
          <internalNodes>
            0 -1 365 7.1650758385658264e-02</internalNodes>
          <leafValues>
            6.8360693752765656e-02 -3.9239275455474854e-01</leafValues></_>
        <_>
          <internalNodes>
            0 -1 483 -1.1803878471255302e-02</internalNodes>
          <leafValues>
            2.9834955930709839e-01 -8.3326876163482666e-02</leafValues></_>
        <_>
          <internalNodes>
            0 -1 117 7.8936349600553513e-03</internalNodes>
          <leafValues>
            6.3438892364501953e-02 -3.6495235562324524e-01</leafValues></_>
        <_>
          <internalNodes>
            0 -1 272 -1.4733037352561951e-01</internalNodes>
          <leafValues>
            -6.7108392715454102e-01 3.4887619316577911e-02</leafValues></_>
        <_>
          <internalNodes>
            0 -1 525 9.3827852979302406e-03</internalNodes>
          <leafValues>
            -9.8096758127212524e-02 2.6142671704292297e-01</leafValues></_>
        <_>
          <internalNodes>
            0 -1 619 1.5347902663052082e-02</internalNodes>
          <leafValues>
            -1.0462691634893417e-01 2.0515306293964386e-01</leafValues></_>
        <_>
          <internalNodes>
            0 -1 338 -7.7638081274926662e-03</internalNodes>
          <leafValues>
            2.3148304224014282e-01 -9.6140801906585693e-02</leafValues></_>
        <_>
          <internalNodes>
            0 -1 27 -3.0141711235046387e-02</internalNodes>
          <leafValues>
            -4.2843988537788391e-01 5.8257494121789932e-02</leafValues></_>
        <_>
          <internalNodes>
            0 -1 81 1.7902510240674019e-02</internalNodes>
          <leafValues>
            -1.0476474463939667e-01 2.6491343975067139e-01</leafValues></_>
        <_>
          <internalNodes>
            0 -1 662 -5.6070187129080296e-03</internalNodes>
          <leafValues>
            -4.0843811631202698e-01 5.5135481059551239e-02</leafValues></_>
        <_>
          <internalNodes>
            0 -1 139 1.1026723682880402e-01</internalNodes>
          <leafValues>
            -4.6852454543113708e-02 4.8932728171348572e-01</leafValues></_>
        <_>
          <internalNodes>
            0 -1 288 -1.1723199486732483e-01</internalNodes>
          <leafValues>
            2.2564375400543213e-01 -1.1956927925348282e-01</leafValues></_>
        <_>
          <internalNodes>
            0 -1 534 -1.2597982585430145e-01</internalNodes>
          <leafValues>
            3.8328373432159424e-01 -7.4996612966060638e-02</leafValues></_>
        <_>
          <internalNodes>
            0 -1 510 1.1212449520826340e-02</internalNodes>
          <leafValues>
            -1.0916996002197266e-01 2.3150345683097839e-01</leafValues></_>
        <_>
          <internalNodes>
            0 -1 33 -6.4691863954067230e-03</internalNodes>
          <leafValues>
            -3.6835628747940063e-01 6.3035391271114349e-02</leafValues></_>
        <_>
          <internalNodes>
            0 -1 451 8.5578158497810364e-02</internalNodes>
          <leafValues>
            3.4436404705047607e-02 -6.2713474035263062e-01</leafValues></_>
        <_>
          <internalNodes>
            0 -1 525 -1.7893753945827484e-02</internalNodes>
          <leafValues>
            4.0318247675895691e-01 -5.6349530816078186e-02</leafValues></_>
        <_>
          <internalNodes>
            0 -1 551 4.6759396791458130e-02</internalNodes>
          <leafValues>
            2.8356531634926796e-02 -7.9380685091018677e-01</leafValues></_>
        <_>
          <internalNodes>
            0 -1 181 -9.1744199395179749e-02</internalNodes>
          <leafValues>
            -3.9167788624763489e-01 4.8708163201808929e-02</leafValues></_>
        <_>
          <internalNodes>
            0 -1 433 -5.6474439799785614e-02</internalNodes>
          <leafValues>
            8.3319944143295288e-01 -3.0449179932475090e-02</leafValues></_>
        <_>
          <internalNodes>
            0 -1 438 1.2870889902114868e-01</internalNodes>
          <leafValues>
            4.0030170232057571e-02 -5.9834271669387817e-01</leafValues></_>
        <_>
          <internalNodes>
            0 -1 607 8.7166637182235718e-02</internalNodes>
          <leafValues>
            -6.7254669964313507e-02 3.4146144986152649e-01</leafValues></_>
        <_>
          <internalNodes>
            0 -1 494 -3.4421257674694061e-02</internalNodes>
          <leafValues>
            2.5490558147430420e-01 -1.0250440984964371e-01</leafValues></_>
        <_>
          <internalNodes>
            0 -1 489 -1.5500837564468384e-01</internalNodes>
          <leafValues>
            2.9567357897758484e-01 -6.9644503295421600e-02</leafValues></_>
        <_>
          <internalNodes>
            0 -1 668 4.5675244182348251e-03</internalNodes>
          <leafValues>
            6.5362200140953064e-02 -3.3254680037498474e-01</leafValues></_>
        <_>
          <internalNodes>
            0 -1 667 -9.1104298830032349e-02</internalNodes>
          <leafValues>
            -9.1656249761581421e-01 2.0309345796704292e-02</leafValues></_>
        <_>
          <internalNodes>
            0 -1 615 -4.9242968671023846e-03</internalNodes>
          <leafValues>
            2.3283886909484863e-01 -9.6188947558403015e-02</leafValues></_>
        <_>
          <internalNodes>
            0 -1 513 -2.2708199918270111e-02</internalNodes>
          <leafValues>
            3.9704859256744385e-01 -4.9914717674255371e-02</leafValues></_>
        <_>
          <internalNodes>
            0 -1 345 1.9578430801630020e-02</internalNodes>
          <leafValues>
            -9.4683974981307983e-02 2.2659735381603241e-01</leafValues></_>
        <_>
          <internalNodes>
            0 -1 670 1.9238749518990517e-02</internalNodes>
          <leafValues>
            5.6634508073329926e-02 -3.8362389802932739e-01</leafValues></_>
        <_>
          <internalNodes>
            0 -1 55 1.4585551619529724e-01</internalNodes>
          <leafValues>
            3.3169116824865341e-02 -5.5899834632873535e-01</leafValues></_>
        <_>
          <internalNodes>
            0 -1 630 -1.0972082614898682e-02</internalNodes>
          <leafValues>
            -6.4159661531448364e-01 2.9479328542947769e-02</leafValues></_>
        <_>
          <internalNodes>
            0 -1 555 2.3471023887395859e-03</internalNodes>
          <leafValues>
            -1.3148854672908783e-01 1.6722111403942108e-01</leafValues></_>
        <_>
          <internalNodes>
            0 -1 397 -3.2097719609737396e-02</internalNodes>
          <leafValues>
            5.5068868398666382e-01 -3.8912788033485413e-02</leafValues></_>
        <_>
          <internalNodes>
            0 -1 240 1.0668778792023659e-02</internalNodes>
          <leafValues>
            -5.9047836810350418e-02 3.3774453401565552e-01</leafValues></_>
        <_>
          <internalNodes>
            0 -1 240 -9.8523795604705811e-03</internalNodes>
          <leafValues>
            2.5209987163543701e-01 -1.0310310125350952e-01</leafValues></_>
        <_>
          <internalNodes>
            0 -1 0 5.3981509990990162e-03</internalNodes>
          <leafValues>
            5.0148792564868927e-02 -4.3398296833038330e-01</leafValues></_>
        <_>
          <internalNodes>
            0 -1 316 9.2861831188201904e-02</internalNodes>
          <leafValues>
            2.7109853923320770e-02 -6.9647973775863647e-01</leafValues></_></weakClassifiers></_>
    <!-- stage 11 -->
    <_>
      <maxWeakCount>55</maxWeakCount>
      <stageThreshold>-5.8103895187377930e-01</stageThreshold>
      <weakClassifiers>
        <_>
          <internalNodes>
            0 -1 399 1.7121002078056335e-02</internalNodes>
          <leafValues>
            2.0546385645866394e-01 5.1407885551452637e-01</leafValues></_>
        <_>
          <internalNodes>
            0 -1 625 6.2155574560165405e-03</internalNodes>
          <leafValues>
            -7.1700319647789001e-02 3.3420559763908386e-01</leafValues></_>
        <_>
          <internalNodes>
            0 -1 675 1.2413481250405312e-02</internalNodes>
          <leafValues>
            4.1245169937610626e-02 -3.8886857032775879e-01</leafValues></_>
        <_>
          <internalNodes>
            0 -1 129 -1.7066308856010437e-01</internalNodes>
          <leafValues>
            4.4355967640876770e-01 -5.2508227527141571e-02</leafValues></_>
        <_>
          <internalNodes>
            0 -1 81 3.1345799565315247e-02</internalNodes>
          <leafValues>
            -4.8565428704023361e-02 4.0671974420547485e-01</leafValues></_>
        <_>
          <internalNodes>
            0 -1 455 -1.0513740777969360e-01</internalNodes>
          <leafValues>
            2.8305232524871826e-01 -1.0768375545740128e-01</leafValues></_>
        <_>
          <internalNodes>
            0 -1 35 -5.5462833493947983e-02</internalNodes>
          <leafValues>
            -6.0629600286483765e-01 4.9546398222446442e-02</leafValues></_>
        <_>
          <internalNodes>
            0 -1 54 -1.1175663769245148e-01</internalNodes>
          <leafValues>
            4.4231215119361877e-01 -6.4086310565471649e-02</leafValues></_>
        <_>
          <internalNodes>
            0 -1 253 3.8719023577868938e-03</internalNodes>
          <leafValues>
            -1.1803907901048660e-01 2.0543590188026428e-01</leafValues></_>
        <_>
          <internalNodes>
            0 -1 4 2.8362688608467579e-03</internalNodes>
          <leafValues>
            8.3564884960651398e-02 -2.8820577263832092e-01</leafValues></_>
        <_>
          <internalNodes>
            0 -1 92 -4.7814659774303436e-03</internalNodes>
          <leafValues>
            2.3819243907928467e-01 -1.0440017282962799e-01</leafValues></_>
        <_>
          <internalNodes>
            0 -1 132 -3.9871789515018463e-02</internalNodes>
          <leafValues>
            -4.5050320029258728e-01 5.5352933704853058e-02</leafValues></_>
        <_>
          <internalNodes>
            0 -1 414 2.5091912597417831e-02</internalNodes>
          <leafValues>
            4.7338217496871948e-02 -4.6844547986984253e-01</leafValues></_>
        <_>
          <internalNodes>
            0 -1 648 -2.5445932988077402e-03</internalNodes>
          <leafValues>
            1.7271333932876587e-01 -1.2653842568397522e-01</leafValues></_>
        <_>
          <internalNodes>
            0 -1 108 4.8517105169594288e-03</internalNodes>
          <leafValues>
            6.3198424875736237e-02 -3.4357786178588867e-01</leafValues></_>
        <_>
          <internalNodes>
            0 -1 546 1.3172891922295094e-02</internalNodes>
          <leafValues>
            -5.5314969271421432e-02 4.1189366579055786e-01</leafValues></_>
        <_>
          <internalNodes>
            0 -1 348 -2.7570882439613342e-01</internalNodes>
          <leafValues>
            -3.8446950912475586e-01 6.4947552978992462e-02</leafValues></_>
        <_>
          <internalNodes>
            0 -1 546 -1.5399403870105743e-02</internalNodes>
          <leafValues>
            3.9119264483451843e-01 -6.3797421753406525e-02</leafValues></_>
        <_>
          <internalNodes>
            0 -1 439 1.3778910040855408e-01</internalNodes>
          <leafValues>
            3.0830316245555878e-02 -7.2175616025924683e-01</leafValues></_>
        <_>
          <internalNodes>
            0 -1 516 -1.1654466390609741e-02</internalNodes>
          <leafValues>
            -5.6566995382308960e-01 3.5466436296701431e-02</leafValues></_>
        <_>
          <internalNodes>
            0 -1 442 8.6870089173316956e-02</internalNodes>
          <leafValues>
            2.4464590474963188e-02 -7.6762294769287109e-01</leafValues></_>
        <_>
          <internalNodes>
            0 -1 378 1.1872185021638870e-01</internalNodes>
          <leafValues>
            2.2437788546085358e-02 -8.2887703180313110e-01</leafValues></_>
        <_>
          <internalNodes>
            0 -1 8 1.0480287484824657e-02</internalNodes>
          <leafValues>
            8.3508878946304321e-02 -2.5291886925697327e-01</leafValues></_>
        <_>
          <internalNodes>
            0 -1 204 -3.1949728727340698e-02</internalNodes>
          <leafValues>
            5.0518071651458740e-01 -4.8571176826953888e-02</leafValues></_>
        <_>
          <internalNodes>
            0 -1 298 -7.2489261627197266e-02</internalNodes>
          <leafValues>
            -3.4248918294906616e-01 6.3339248299598694e-02</leafValues></_>
        <_>
          <internalNodes>
            0 -1 389 -2.5196982547640800e-02</internalNodes>
          <leafValues>
            2.9820394515991211e-01 -7.5074493885040283e-02</leafValues></_>
        <_>
          <internalNodes>
            0 -1 364 4.1407119482755661e-02</internalNodes>
          <leafValues>
            -1.0171309858560562e-01 2.8183466196060181e-01</leafValues></_>
        <_>
          <internalNodes>
            0 -1 463 -4.4698223471641541e-02</internalNodes>
          <leafValues>
            4.5706743001937866e-01 -4.2225532233715057e-02</leafValues></_>
        <_>
          <internalNodes>
            0 -1 50 1.1104965955018997e-01</internalNodes>
          <leafValues>
            -6.0509141534566879e-02 3.3939361572265625e-01</leafValues></_>
        <_>
          <internalNodes>
            0 -1 45 -1.5338559751398861e-04</internalNodes>
          <leafValues>
            1.5783523023128510e-01 -1.5009991824626923e-01</leafValues></_>
        <_>
          <internalNodes>
            0 -1 547 -9.1127604246139526e-03</internalNodes>
          <leafValues>
            2.5690108537673950e-01 -8.1907548010349274e-02</leafValues></_>
        <_>
          <internalNodes>
            0 -1 311 -6.9632053375244141e-02</internalNodes>
          <leafValues>
            -3.9032059907913208e-01 5.2617419511079788e-02</leafValues></_>
        <_>
          <internalNodes>
            0 -1 30 -1.4014366269111633e-01</internalNodes>
          <leafValues>
            -2.9976159334182739e-01 7.2596676647663116e-02</leafValues></_>
        <_>
          <internalNodes>
            0 -1 165 5.8097191154956818e-02</internalNodes>
          <leafValues>
            2.4361869320273399e-02 -7.0940661430358887e-01</leafValues></_>
        <_>
          <internalNodes>
            0 -1 538 -9.4539374113082886e-03</internalNodes>
          <leafValues>
            2.6161396503448486e-01 -7.5773328542709351e-02</leafValues></_>
        <_>
          <internalNodes>
            0 -1 572 -1.9702006131410599e-02</internalNodes>
          <leafValues>
            3.1644141674041748e-01 -6.8789489567279816e-02</leafValues></_>
        <_>
          <internalNodes>
            0 -1 0 2.1229451522231102e-03</internalNodes>
          <leafValues>
            7.7335938811302185e-02 -2.6901230216026306e-01</leafValues></_>
        <_>
          <internalNodes>
            0 -1 604 -1.0562330484390259e-02</internalNodes>
          <leafValues>
            -5.8746963739395142e-01 3.3710140734910965e-02</leafValues></_>
        <_>
          <internalNodes>
            0 -1 544 -1.2938515283167362e-02</internalNodes>
          <leafValues>
            3.4575384855270386e-01 -6.1493195593357086e-02</leafValues></_>
        <_>
          <internalNodes>
            0 -1 473 -1.7705120146274567e-02</internalNodes>
          <leafValues>
            4.2992898821830750e-01 -4.4316459447145462e-02</leafValues></_>
        <_>
          <internalNodes>
            0 -1 6 -1.2923583388328552e-02</internalNodes>
          <leafValues>
            -3.6295956373214722e-01 6.4510986208915710e-02</leafValues></_>
        <_>
          <internalNodes>
            0 -1 382 7.8795686364173889e-02</internalNodes>
          <leafValues>
            3.7657700479030609e-02 -5.2519297599792480e-01</leafValues></_>
        <_>
          <internalNodes>
            0 -1 595 5.4123541340231895e-03</internalNodes>
          <leafValues>
            -9.0095609426498413e-02 2.3372931778430939e-01</leafValues></_>
        <_>
          <internalNodes>
            0 -1 556 -2.3348685353994370e-02</internalNodes>
          <leafValues>
            -5.5969405174255371e-01 4.4225655496120453e-02</leafValues></_>
        <_>
          <internalNodes>
            0 -1 313 5.4948115721344948e-03</internalNodes>
          <leafValues>
            -8.6010776460170746e-02 2.5346580147743225e-01</leafValues></_>
        <_>
          <internalNodes>
            0 -1 234 -2.5500319898128510e-02</internalNodes>
          <leafValues>
            2.8936946392059326e-01 -6.7554689943790436e-02</leafValues></_>
        <_>
          <internalNodes>
            0 -1 152 -2.4008885957300663e-03</internalNodes>
          <leafValues>
            1.6489724814891815e-01 -1.4046405255794525e-01</leafValues></_>
        <_>
          <internalNodes>
            0 -1 296 1.2056210637092590e-01</internalNodes>
          <leafValues>
            2.5344680994749069e-02 -8.3039867877960205e-01</leafValues></_>
        <_>
          <internalNodes>
            0 -1 238 -4.1670270264148712e-02</internalNodes>
          <leafValues>
            1.9097185134887695e-01 -1.0365489125251770e-01</leafValues></_>
        <_>
          <internalNodes>
            0 -1 340 2.4069777131080627e-01</internalNodes>
          <leafValues>
            -9.0210594236850739e-02 2.7197486162185669e-01</leafValues></_>
        <_>
          <internalNodes>
            0 -1 151 2.3015879094600677e-01</internalNodes>
          <leafValues>
            3.2850746065378189e-02 -7.7459555864334106e-01</leafValues></_>
        <_>
          <internalNodes>
            0 -1 526 5.5692698806524277e-03</internalNodes>
          <leafValues>
            -9.1562703251838684e-02 2.2863698005676270e-01</leafValues></_>
        <_>
          <internalNodes>
            0 -1 141 -2.2681511938571930e-02</internalNodes>
          <leafValues>
            2.3798125982284546e-01 -9.5704928040504456e-02</leafValues></_>
        <_>
          <internalNodes>
            0 -1 48 7.2202220559120178e-02</internalNodes>
          <leafValues>
            -3.4289903938770294e-02 5.9088802337646484e-01</leafValues></_>
        <_>
          <internalNodes>
            0 -1 315 -4.0323391556739807e-02</internalNodes>
          <leafValues>
            -5.6498920917510986e-01 4.4021774083375931e-02</leafValues></_></weakClassifiers></_>
    <!-- stage 12 -->
    <_>
      <maxWeakCount>60</maxWeakCount>
      <stageThreshold>-5.8664309978485107e-01</stageThreshold>
      <weakClassifiers>
        <_>
          <internalNodes>
            0 -1 101 -9.9250413477420807e-03</internalNodes>
          <leafValues>
            -2.0512820780277252e-01 3.7076649069786072e-01</leafValues></_>
        <_>
          <internalNodes>
            0 -1 327 1.0384218767285347e-02</internalNodes>
          <leafValues>
            -6.5159499645233154e-02 3.5361665487289429e-01</leafValues></_>
        <_>
          <internalNodes>
            0 -1 128 -7.6867327094078064e-02</internalNodes>
          <leafValues>
            3.1449699401855469e-01 -7.0615306496620178e-02</leafValues></_>
        <_>
          <internalNodes>
            0 -1 413 1.3657127507030964e-02</internalNodes>
          <leafValues>
            -1.0182236880064011e-01 2.5389444828033447e-01</leafValues></_>
        <_>
          <internalNodes>
            0 -1 522 1.0754186660051346e-03</internalNodes>
          <leafValues>
            -1.9257652759552002e-01 1.3385805487632751e-01</leafValues></_>
        <_>
          <internalNodes>
            0 -1 116 5.3321020677685738e-03</internalNodes>
          <leafValues>
            8.9671120047569275e-02 -4.1007375717163086e-01</leafValues></_>
        <_>
          <internalNodes>
            0 -1 11 2.5712586939334869e-02</internalNodes>
          <leafValues>
            1.6362011432647705e-02 -5.4246687889099121e-01</leafValues></_>
        <_>
          <internalNodes>
            0 -1 282 -1.4135272067505866e-04</internalNodes>
          <leafValues>
            1.3605374097824097e-01 -1.5632955729961395e-01</leafValues></_>
        <_>
          <internalNodes>
            0 -1 51 7.3269560933113098e-02</internalNodes>
          <leafValues>
            -9.1921575367450714e-02 2.6892372965812683e-01</leafValues></_>
        <_>
          <internalNodes>
            0 -1 180 -1.7850096628535539e-04</internalNodes>
          <leafValues>
            1.3427978754043579e-01 -1.7542442679405212e-01</leafValues></_>
        <_>
          <internalNodes>
            0 -1 409 6.3755467534065247e-02</internalNodes>
          <leafValues>
            5.4346486926078796e-02 -5.5149561166763306e-01</leafValues></_>
        <_>
          <internalNodes>
            0 -1 448 -1.4863314107060432e-02</internalNodes>
          <leafValues>
            5.2264356613159180e-01 -4.3537482619285583e-02</leafValues></_>
        <_>
          <internalNodes>
            0 -1 182 -1.5309988521039486e-03</internalNodes>
          <leafValues>
            -2.2488181293010712e-01 9.8345406353473663e-02</leafValues></_>
        <_>
          <internalNodes>
            0 -1 634 -6.2174731865525246e-03</internalNodes>
          <leafValues>
            -4.5621877908706665e-01 5.5407047271728516e-02</leafValues></_>
        <_>
          <internalNodes>
            0 -1 426 -2.0712345838546753e-02</internalNodes>
          <leafValues>
            2.7221032977104187e-01 -7.9606771469116211e-02</leafValues></_>
        <_>
          <internalNodes>
            0 -1 293 8.0643795430660248e-02</internalNodes>
          <leafValues>
            -1.0755114257335663e-01 2.5059607625007629e-01</leafValues></_>
        <_>
          <internalNodes>
            0 -1 582 3.2836794853210449e-02</internalNodes>
          <leafValues>
            -6.6900767385959625e-02 3.0077123641967773e-01</leafValues></_>
        <_>
          <internalNodes>
            0 -1 585 -5.5451706051826477e-02</internalNodes>
          <leafValues>
            5.9291452169418335e-01 -4.0783319622278214e-02</leafValues></_>
        <_>
          <internalNodes>
            0 -1 557 1.5023999731056392e-04</internalNodes>
          <leafValues>
            -1.5554326772689819e-01 1.3878983259201050e-01</leafValues></_>
        <_>
          <internalNodes>
            0 -1 97 4.7405466437339783e-02</internalNodes>
          <leafValues>
            -6.8249724805355072e-02 2.6969048380851746e-01</leafValues></_>
        <_>
          <internalNodes>
            0 -1 59 -2.1122372150421143e-01</internalNodes>
          <leafValues>
            2.1453376114368439e-01 -1.0582938790321350e-01</leafValues></_>
        <_>
          <internalNodes>
            0 -1 357 1.3133767247200012e-01</internalNodes>
          <leafValues>
            -7.0175066590309143e-02 3.6622640490531921e-01</leafValues></_>
        <_>
          <internalNodes>
            0 -1 250 -1.8770940601825714e-02</internalNodes>
          <leafValues>
            2.3260006308555603e-01 -9.0181775391101837e-02</leafValues></_>
        <_>
          <internalNodes>
            0 -1 634 2.2473027929663658e-03</internalNodes>
          <leafValues>
            7.6891936361789703e-02 -2.5110074877738953e-01</leafValues></_>
        <_>
          <internalNodes>
            0 -1 70 -4.6196468174457550e-02</internalNodes>
          <leafValues>
            4.6207782626152039e-01 -4.4240586459636688e-02</leafValues></_>
        <_>
          <internalNodes>
            0 -1 289 -4.5271399430930614e-03</internalNodes>
          <leafValues>
            2.0363654196262360e-01 -1.0272626578807831e-01</leafValues></_>
        <_>
          <internalNodes>
            0 -1 26 -2.4299174547195435e-02</internalNodes>
          <leafValues>
            -4.0924847126007080e-01 5.0884619355201721e-02</leafValues></_>
        <_>
          <internalNodes>
            0 -1 651 -3.2220254652202129e-03</internalNodes>
          <leafValues>
            1.9564904272556305e-01 -1.0273968428373337e-01</leafValues></_>
        <_>
          <internalNodes>
            0 -1 660 8.8408701121807098e-03</internalNodes>
          <leafValues>
            3.9384324103593826e-02 -5.4059952497482300e-01</leafValues></_>
        <_>
          <internalNodes>
            0 -1 592 -3.1657449901103973e-02</internalNodes>
          <leafValues>
            2.8262457251548767e-01 -7.2915025055408478e-02</leafValues></_>
        <_>
          <internalNodes>
            0 -1 219 1.5844449400901794e-02</internalNodes>
          <leafValues>
            -6.6782452166080475e-02 3.3779931068420410e-01</leafValues></_>
        <_>
          <internalNodes>
            0 -1 203 2.1627552341669798e-03</internalNodes>
          <leafValues>
            -1.3264822959899902e-01 1.6364686191082001e-01</leafValues></_>
        <_>
          <internalNodes>
            0 -1 614 -1.0325627774000168e-01</internalNodes>
          <leafValues>
            3.6127150058746338e-01 -5.4632171988487244e-02</leafValues></_>
        <_>
          <internalNodes>
            0 -1 618 9.7551774233579636e-03</internalNodes>
          <leafValues>
            -8.3762019872665405e-02 2.3540343344211578e-01</leafValues></_>
        <_>
          <internalNodes>
            0 -1 59 7.0823717117309570e-01</internalNodes>
          <leafValues>
            -5.8412909507751465e-02 3.9007085561752319e-01</leafValues></_>
        <_>
          <internalNodes>
            0 -1 407 1.5552065335214138e-02</internalNodes>
          <leafValues>
            -8.4094785153865814e-02 2.7327573299407959e-01</leafValues></_>
        <_>
          <internalNodes>
            0 -1 464 1.2711050920188427e-02</internalNodes>
          <leafValues>
            -1.2863400578498840e-01 2.2534774243831635e-01</leafValues></_>
        <_>
          <internalNodes>
            0 -1 571 3.4054320305585861e-02</internalNodes>
          <leafValues>
            -4.7832883894443512e-02 4.4661635160446167e-01</leafValues></_>
        <_>
          <internalNodes>
            0 -1 240 -2.0986847579479218e-02</internalNodes>
          <leafValues>
            3.7137204408645630e-01 -5.1633346825838089e-02</leafValues></_>
        <_>
          <internalNodes>
            0 -1 332 -2.4898806586861610e-03</internalNodes>
          <leafValues>
            1.9609287381172180e-01 -1.0115952044725418e-01</leafValues></_>
        <_>
          <internalNodes>
            0 -1 269 -4.2271018028259277e-02</internalNodes>
          <leafValues>
            -7.0067334175109863e-01 3.3989839255809784e-02</leafValues></_>
        <_>
          <internalNodes>
            0 -1 194 -5.6305127218365669e-03</internalNodes>
          <leafValues>
            -3.2273474335670471e-01 5.8816775679588318e-02</leafValues></_>
        <_>
          <internalNodes>
            0 -1 375 5.5693030357360840e-02</internalNodes>
          <leafValues>
            2.7447078377008438e-02 -6.5893477201461792e-01</leafValues></_>
        <_>
          <internalNodes>
            0 -1 146 4.5974630862474442e-02</internalNodes>
          <leafValues>
            -4.5277450233697891e-02 4.4336506724357605e-01</leafValues></_>
        <_>
          <internalNodes>
            0 -1 244 8.9699804782867432e-02</internalNodes>
          <leafValues>
            3.7201412022113800e-02 -6.2805277109146118e-01</leafValues></_>
        <_>
          <internalNodes>
            0 -1 380 8.2015665248036385e-03</internalNodes>
          <leafValues>
            -6.9530725479125977e-02 2.9826667904853821e-01</leafValues></_>
        <_>
          <internalNodes>
            0 -1 328 -1.6751797869801521e-02</internalNodes>
          <leafValues>
            1.9520589709281921e-01 -1.0143317282199860e-01</leafValues></_>
        <_>
          <internalNodes>
            0 -1 599 -2.2158317267894745e-02</internalNodes>
          <leafValues>
            -5.9139418601989746e-01 3.3767014741897583e-02</leafValues></_>
        <_>
          <internalNodes>
            0 -1 157 -4.9341954290866852e-02</internalNodes>
          <leafValues>
            1.6893289983272552e-01 -1.1420755833387375e-01</leafValues></_>
        <_>
          <internalNodes>
            0 -1 163 -2.7796369045972824e-02</internalNodes>
          <leafValues>
            3.7331572175025940e-01 -5.1772464066743851e-02</leafValues></_>
        <_>
          <internalNodes>
            0 -1 109 -3.3831682521849871e-03</internalNodes>
          <leafValues>
            -2.4148282408714294e-01 8.4423616528511047e-02</leafValues></_>
        <_>
          <internalNodes>
            0 -1 208 2.3406179621815681e-02</internalNodes>
          <leafValues>
            -1.0542902350425720e-01 1.9068144261837006e-01</leafValues></_>
        <_>
          <internalNodes>
            0 -1 530 -6.6144843585789204e-03</internalNodes>
          <leafValues>
            2.7652367949485779e-01 -7.9761378467082977e-02</leafValues></_>
        <_>
          <internalNodes>
            0 -1 530 6.7367879673838615e-03</internalNodes>
          <leafValues>
            -7.3999747633934021e-02 3.0494454503059387e-01</leafValues></_>
        <_>
          <internalNodes>
            0 -1 102 1.3730031787417829e-04</internalNodes>
          <leafValues>
            -1.3546840846538544e-01 1.4019836485385895e-01</leafValues></_>
        <_>
          <internalNodes>
            0 -1 428 -6.9658756256103516e-02</internalNodes>
          <leafValues>
            -5.1265752315521240e-01 3.7009064108133316e-02</leafValues></_>
        <_>
          <internalNodes>
            0 -1 2 7.6744938269257545e-03</internalNodes>
          <leafValues>
            4.2230434715747833e-02 -4.3191418051719666e-01</leafValues></_>
        <_>
          <internalNodes>
            0 -1 197 4.6733838319778442e-01</internalNodes>
          <leafValues>
            2.1305715665221214e-02 -8.6172288656234741e-01</leafValues></_>
        <_>
          <internalNodes>
            0 -1 474 -2.0723532885313034e-02</internalNodes>
          <leafValues>
            -5.0298506021499634e-01 3.1466137617826462e-02</leafValues></_>
        <_>
          <internalNodes>
            0 -1 276 1.1475034058094025e-01</internalNodes>
          <leafValues>
            -6.7797511816024780e-02 2.7495229244232178e-01</leafValues></_></weakClassifiers></_>
    <!-- stage 13 -->
    <_>
      <maxWeakCount>66</maxWeakCount>
      <stageThreshold>-6.0467231273651123e-01</stageThreshold>
      <weakClassifiers>
        <_>
          <internalNodes>
            0 -1 23 4.8624747432768345e-03</internalNodes>
          <leafValues>
            3.9064571261405945e-01 -8.7621696293354034e-02</leafValues></_>
        <_>
          <internalNodes>
            0 -1 398 2.2124908864498138e-02</internalNodes>
          <leafValues>
            -8.6535952985286713e-02 2.5500613451004028e-01</leafValues></_>
        <_>
          <internalNodes>
            0 -1 637 7.4258465319871902e-03</internalNodes>
          <leafValues>
            4.8157624900341034e-02 -4.7168433666229248e-01</leafValues></_>
        <_>
          <internalNodes>
            0 -1 113 -1.4011022448539734e-01</internalNodes>
          <leafValues>
            3.3092287182807922e-01 -6.8147107958793640e-02</leafValues></_>
        <_>
          <internalNodes>
            0 -1 87 7.7902749180793762e-03</internalNodes>
          <leafValues>
            -1.0742075741291046e-01 2.5423693656921387e-01</leafValues></_>
        <_>
          <internalNodes>
            0 -1 47 4.6979617327451706e-02</internalNodes>
          <leafValues>
            4.4810354709625244e-02 -5.4154062271118164e-01</leafValues></_>
        <_>
          <internalNodes>
            0 -1 436 2.8484595939517021e-02</internalNodes>
          <leafValues>
            8.9745126664638519e-02 -2.5017529726028442e-01</leafValues></_>
        <_>
          <internalNodes>
            0 -1 521 1.9693051278591156e-01</internalNodes>
          <leafValues>
            4.3377723544836044e-02 -3.7313002347946167e-01</leafValues></_>
        <_>
          <internalNodes>
            0 -1 304 -5.9130478650331497e-02</internalNodes>
          <leafValues>
            -3.2135859131813049e-01 7.2135902941226959e-02</leafValues></_>
        <_>
          <internalNodes>
            0 -1 133 1.5634214878082275e-01</internalNodes>
          <leafValues>
            6.9489873945713043e-02 -3.5612908005714417e-01</leafValues></_>
        <_>
          <internalNodes>
            0 -1 361 -3.5593964159488678e-02</internalNodes>
          <leafValues>
            2.6730352640151978e-01 -1.0772304981946945e-01</leafValues></_>
        <_>
          <internalNodes>
            0 -1 67 -2.1378342062234879e-02</internalNodes>
          <leafValues>
            -3.8850039243698120e-01 6.4427427947521210e-02</leafValues></_>
        <_>
          <internalNodes>
            0 -1 570 -4.8745279200375080e-03</internalNodes>
          <leafValues>
            2.0766332745552063e-01 -9.7404837608337402e-02</leafValues></_>
        <_>
          <internalNodes>
            0 -1 457 -4.4584967195987701e-02</internalNodes>
          <leafValues>
            5.3519833087921143e-01 -4.7887466847896576e-02</leafValues></_>
        <_>
          <internalNodes>
            0 -1 559 -1.1670920066535473e-02</internalNodes>
          <leafValues>
            -5.7571250200271606e-01 4.4357780367136002e-02</leafValues></_>
        <_>
          <internalNodes>
            0 -1 666 4.5761046931147575e-03</internalNodes>
          <leafValues>
            6.8083442747592926e-02 -2.5167924165725708e-01</leafValues></_>
        <_>
          <internalNodes>
            0 -1 636 -6.2152268365025520e-03</internalNodes>
          <leafValues>
            -2.4225533008575439e-01 8.1298097968101501e-02</leafValues></_>
        <_>
          <internalNodes>
            0 -1 621 7.5801387429237366e-03</internalNodes>
          <leafValues>
            -1.0767544060945511e-01 1.8199758231639862e-01</leafValues></_>
        <_>
          <internalNodes>
            0 -1 616 -3.7929117679595947e-02</internalNodes>
          <leafValues>
            3.9046952128410339e-01 -4.6937741339206696e-02</leafValues></_>
        <_>
          <internalNodes>
            0 -1 370 -9.7211608663201332e-03</internalNodes>
          <leafValues>
            3.2647395133972168e-01 -5.2610572427511215e-02</leafValues></_>
        <_>
          <internalNodes>
            0 -1 266 1.0899212211370468e-02</internalNodes>
          <leafValues>
            3.4902065992355347e-02 -5.3934305906295776e-01</leafValues></_>
        <_>
          <internalNodes>
            0 -1 654 2.6430990546941757e-02</internalNodes>
          <leafValues>
            2.1978387609124184e-02 -7.7265983819961548e-01</leafValues></_>
        <_>
          <internalNodes>
            0 -1 345 -3.8547158241271973e-02</internalNodes>
          <leafValues>
            3.3032950758934021e-01 -5.5389769375324249e-02</leafValues></_>
        <_>
          <internalNodes>
            0 -1 471 8.6197014898061752e-03</internalNodes>
          <leafValues>
            -7.7078782021999359e-02 2.6039311289787292e-01</leafValues></_>
        <_>
          <internalNodes>
            0 -1 524 -2.8635919094085693e-02</internalNodes>
          <leafValues>
            -5.8791315555572510e-01 3.3084392547607422e-02</leafValues></_>
        <_>
          <internalNodes>
            0 -1 468 2.1010958589613438e-03</internalNodes>
          <leafValues>
            -1.4985287189483643e-01 1.1882992088794708e-01</leafValues></_>
        <_>
          <internalNodes>
            0 -1 574 1.1351481080055237e-01</internalNodes>
          <leafValues>
            -5.8749668300151825e-02 2.9944863915443420e-01</leafValues></_>
        <_>
          <internalNodes>
            0 -1 340 2.6159635186195374e-01</internalNodes>
          <leafValues>
            -8.8683068752288818e-02 2.7968451380729675e-01</leafValues></_>
        <_>
          <internalNodes>
            0 -1 13 1.7189502716064453e-02</internalNodes>
          <leafValues>
            1.5612313151359558e-01 -1.5425869822502136e-01</leafValues></_>
        <_>
          <internalNodes>
            0 -1 212 4.4305053353309631e-01</internalNodes>
          <leafValues>
            -5.9922356158494949e-02 3.4727388620376587e-01</leafValues></_>
        <_>
          <internalNodes>
            0 -1 552 -5.7198917493224144e-03</internalNodes>
          <leafValues>
            2.8874477744102478e-01 -7.9752452671527863e-02</leafValues></_>
        <_>
          <internalNodes>
            0 -1 80 -1.1909230612218380e-02</internalNodes>
          <leafValues>
            2.3609180748462677e-01 -8.7343946099281311e-02</leafValues></_>
        <_>
          <internalNodes>
            0 -1 172 4.0084486827254295e-03</internalNodes>
          <leafValues>
            -1.0328928381204605e-01 2.1803873777389526e-01</leafValues></_>
        <_>
          <internalNodes>
            0 -1 109 -1.5121880918741226e-02</internalNodes>
          <leafValues>
            -6.3392895460128784e-01 2.5235807523131371e-02</leafValues></_>
        <_>
          <internalNodes>
            0 -1 448 1.7487376928329468e-02</internalNodes>
          <leafValues>
            -3.5682998597621918e-02 5.2155601978302002e-01</leafValues></_>
        <_>
          <internalNodes>
            0 -1 423 9.4545688480138779e-03</internalNodes>
          <leafValues>
            -6.7576766014099121e-02 2.7830371260643005e-01</leafValues></_>
        <_>
          <internalNodes>
            0 -1 295 -1.7329573631286621e-01</internalNodes>
          <leafValues>
            3.5505869984626770e-01 -4.6806376427412033e-02</leafValues></_>
        <_>
          <internalNodes>
            0 -1 309 -4.9083556979894638e-02</internalNodes>
          <leafValues>
            -7.2182762622833252e-01 2.7056870982050896e-02</leafValues></_>
        <_>
          <internalNodes>
            0 -1 232 1.0041100904345512e-02</internalNodes>
          <leafValues>
            -7.9377733170986176e-02 2.6032218337059021e-01</leafValues></_>
        <_>
          <internalNodes>
            0 -1 617 -4.7399334609508514e-02</internalNodes>
          <leafValues>
